derribar -0.01692966536803828 -0.3176847423970199 -0.47748449145499183 -0.2624676115146561 -0.6541135197978493 -0.13942866729237682 0.23205528655885604 -0.27714924966416643 -0.3147718250713959 -0.01905474950724053 0.2779639647488476 -0.19515970301244645 -0.08615097394341932 0.09306767399301143 0.23049342485393745 -0.4591971140315383 0.21663593610917634 0.6055782611544466 -0.5269942965166942 0.07399473814275177 0.19781303239327 0.42186497929440947 0.3289580147666021 -0.28844210904522 -0.6680358631647464 0.20759844473279315 0.077334211793372 0.4815645788835419 -0.1998197038794488 0.859569902588867 -0.12259339958858625 -0.17389107660282524 0.23298199923543572 0.5319917984250394 -0.603929119065628 0.368110513943045 0.7579841210273695 -0.4745233390600352 0.4428319727684742 0.3228470306934403 0.0016032645840393595 0.027313259751131184 -0.15492879992075598 0.6993544793659816 -0.252526232696567 0.0076072495941071384 0.2389003928829007 0.05328910915944699 -0.31709103381405096 -0.2268421274499109 -0.06285354366701258 -0.6123227370118297 -0.1264618678858081 0.31134115419643066 0.5189389563284476 0.07613180372953117 0.027321948835905673 0.32202328189618173 0.2422095967247864 0.07826960552102492 -0.5412090365570852 -0.46199980724213535 -0.0904460851752678 -0.11520534549644801 -0.2926018102677081 -0.10801494028517027 -0.10793340018793715 -0.22778231339897848 -0.1349974555153858 -0.23968417633733194 0.1975558774810191 0.46868138011307814 -0.630027585218404 -0.45591094583397757 0.12642910868964996 -0.19538849504502506 0.06921990761568109 0.2037376992907875 -0.42435716234808524 -0.2008146545594884 0.5426881396623867 -0.605648071391134 -0.1920110106586431 -0.028601374044964323 0.10500276055402888 0.36506206646372585 0.06602046337861861 -0.21266322271060978 -0.4174329236336353 0.12480861939650587 -0.2488696448295633 -0.030013741389653174 0.4113025111767714 0.21965082537295164 -0.10702030317204238 -0.15030319431479822 0.15266589586526003 0.029150027804107068 0.15273618542322967 -0.39967516506685113 0.3863046646893199 -1.1037329242470464 -0.313796278876618 -1.0126830608646489 -0.21687299572840243 -0.2650959310459573 -0.10046908177316312 -0.303558016092948 0.6494974134732332 0.28473747803818505 0.1421455098943606 0.37657041280847525 0.4575133600753067 0.0891330829198777 -0.7410595851964087 -0.5905510312775109 -0.029721327796520976 -0.2724082124725287 -0.3141493905828313 0.07535881913975213 -0.4815649587252183 -0.3302698644527169 0.5791873555196672 0.29747724422776 0.10231780262213444 -0.19309222157757344 -0.36462084756498286 -0.19034404351826095
cofre -0.022759822958590536 -0.031068349527412532 -0.6281871877881305 0.562480980633651 -0.287920418389192 -0.5413633232288744 -0.37812466615133156 0.009150359810655366 0.1252106098879077 0.546650853627161 1.223535148610222 0.16364804226333565 0.2808954048937033 0.2578933373294249 0.10374120071640296 -0.026935796017941688 -0.4110414221151248 0.274843993238859 -0.4907254612125548 0.0033068119093705613 0.39897232647783243 0.32222316793960226 -0.14429010290815428 0.5203205803074279 0.24370409645258978 -0.10318442728200154 0.012955754470519209 0.119418624914587 0.3695384158469734 0.8721423237681285 -0.8844886501867522 0.3747933797567574 -0.48665879305406134 0.4312271850691904 -0.5599537619490231 0.1425122619831014 -0.2580098179810397 -0.09064199054017183 -0.04243364090898357 0.2545754762975132 0.8605022261706184 0.5992452126330416 0.09906189731234734 0.5667062582320885 -0.380527910939552 0.14157749763577449 0.5080049370062922 -0.7412724768643848 -1.0503407054523182 -0.06671812961405796 0.27735895935527777 0.2694468568691243 -0.13295910402032987 0.2372619506942583 -0.04676403133072869 0.08735536335828639 -0.5989935752868749 -0.12539368236601398 -0.20335081122437568 0.027123563889123826 0.03048242463766272 -0.06571976223559503 -0.3442518932253389 0.15047552231543715 -0.1191312156939534 0.30504915923050463 0.24151971843972073 -0.33682178197043405 -0.0550819977504853 0.3977063722936832 0.444992611764031 0.4856584894683896 -0.042720552331959455 -0.18466027436819832 0.21961934805878613 0.23885765264611397 -0.04357817935688778 -0.5417893332937762 0.26429418089464196 -0.27624921997749236 -0.6722748666355093 0.6664840335724859 0.21832805048589368 0.5783773462615039 0.11023218666043347 0.8770807032062566 -0.030101680324567684 -0.10889765392922664 0.12481815095899283 -0.27363422520398667 -0.8411671926034409 -0.12143377037481184 -0.06469561930241756 -0.8181551966538779 -0.1148730127128223 -0.1253872162481584 -0.19327179821165355 0.29550450472979245 0.3308990002306913 -0.15800278411816626 0.2933707025878747 -0.14783835394607098 -0.22545759524715547 -0.7822727789706708 -0.4980447573361289 0.07655294558727692 -0.7609925106687733 0.07273122186745742 0.6015647467027194 0.7314635679718235 -0.15460589146895343 0.04863238692723267 -0.27515642051420464 -0.06982375316333873 -1.1817157006746013 -0.5919676285100517 -0.6631001824916251 0.02183402026710606 -0.42283770729366965 -0.11520628328522498 -0.3170847064504414 -0.04954950862331242 -0.15038515715591305 -0.5029458281323052 -0.004777826108209297 -0.1586234267871337 0.7194185910907754 0.09185081920934934
coyote 0.11958849735554354 0.38669742925010403 -0.6376729412199269 0.17490520498196951 0.010154604462926691 -0.5014674093521241 -0.03755015951811414 -0.16698517464275567 -0.7103343641777012 -0.18407539131659684 0.4016199087604456 0.18655607338222818 -0.3012618615874226 0.4317021529996082 0.1282904368300915 -0.030883631252828087 -0.10705217443359732 0.3743590199995763 0.04176695833626152 -0.10280177460165339 0.2656748293504576 0.34319236357255256 0.1094087383658977 -0.04386587129997527 0.15737754281124708 0.4141524870903076 0.3928727421300841 0.23750155611340365 -0.030388415275999767 0.05518025366197769 0.08829315343478997 0.36021648731248196 -0.18636163401840833 -0.30657978950997206 -0.20743018148195147 0.0125640411870102 0.4931507948467431 -0.19997854207235777 0.4143584151984824 0.36981640094929946 0.19744776015250703 -0.029258182109266402 0.15294147477638553 0.07563225372836795 0.3355458742966846 0.15754116876964125 0.30686748357589283 -0.1491817081720119 0.38778717303143545 -0.3297035275940282 0.25071779727839477 0.10398568089111118 -0.18584412237888442 0.19855070433988883 -0.059570326006432875 0.05137710299425244 -0.058265032565422696 -0.13387538362844845 -0.06789527405526516 -0.1740973912341355 -0.41856698947136817 -0.13455380252586857 -0.10316425346420631 0.3088295670835413 -0.4742660425049293 0.10921367101767236 -0.43476760702984174 -0.019132107785552764 0.04796686071734279 0.07743740799414885 0.024147729650685918 0.9842775033802805 -0.3418936269237394 0.2047423464720034 0.336985547983845 -0.17489273855928691 0.26599171982530895 0.018054484892238678 0.14068567114657649 -0.37642568226299566 0.0350663391764439 -0.25272362158031275 0.2386780478560482 0.36674785675302846 -0.16015068857708087 0.6705737302744941 -0.12609009523120757 -0.31500571367090485 0.2769335159992083 0.5646194387560111 -0.4793228436911841 -0.7246391444022485 0.2114769371745507 0.13522288716702868 0.041901198603281134 -0.03332713538707429 -0.276910451174778 -0.03940024750854722 -0.16434151142133127 -0.2706397591660047 0.038915731978784986 -0.04086359060260347 -0.0178812470228214 -0.008462867981706968 -0.129812196541464 -0.0526672966828335 -0.19089665966678948 -0.03308615811866671 0.07922084571373914 0.2637131082604619 -0.7174786894810604 0.26822513531576525 0.69791980112597 -0.022135201062292522 -0.2569431479016042 -0.3706907943629299 -0.06482325812159208 -0.20943867970131222 0.2988030227311504 0.2652945442804785 0.1075756302605676 -0.09087622246932286 0.23404636332597673 0.2198333569685398 0.1035749030812957 0.009287836180386621 0.10065775620847463 0.2865925099495955
levantar -0.023157299593775865 -0.16794287741569733 -0.2637744033842157 -0.060680122582365985 0.1680412725582941 0.03276089710179339 -0.14819290861031661 0.10880473392288093 -0.04245240019095517 -0.1994866640413059 0.11942950986447122 -0.06112187178576215 0.10493252579990762 -0.025926088992439103 -0.021174632625966854 0.032207421890228356 0.11718347934459915 0.07538233216129145 -0.1966895891043166 0.12252665712676318 0.4832030719327294 0.1354028261391709 0.05093549225342847 0.009205837305781091 -0.029171916921808465 0.11001786610408076 -0.014518062791560695 -0.12745435536114894 -0.2704727435856944 0.3054851230035022 -0.1346829239246201 -0.0034193518264538448 0.08965619413212277 -0.05057242589484599 0.07877133821887207 0.2374790047352488 0.3272130796593981 -0.24012099829217648 0.0027178060647428436 0.16777733987907778 -0.2986984055523479 -0.3566527997696163 -0.29984375915977357 -0.1268283321217648 -0.27324832299350854 -0.1423235067266063 -0.0053101236016181936 -0.13366482826541387 -0.35205198032729634 0.3140992377638372 -0.13451597128469625 0.05714032715687105 -0.004031885868187724 -0.13427131150246496 0.2867336031844289 0.41543260128600124 -0.0218417486451874 -0.006019044496831908 -0.3259126432132152 0.11801647311616646 -0.49858077237958554 -0.37779962462062905 -0.12349688254293684 -0.04157734437964004 0.07333552056862684 -0.24330661085783933 -0.3309798364796284 -0.2545891701305292 0.13193609819397314 0.31444506120060534 0.07697983503705004 0.13936494199309762 0.2530473929049928 0.055966727393004526 0.4128720476159848 0.1591229648470223 0.1910129164983998 0.47336959736569184 0.07166331747247859 -0.16398880600220736 0.17782303961031007 0.006894765406429611 -0.18743449671942522 0.12924671197344662 0.09140762865908977 0.6370204245127045 0.10070070221536398 0.09226009334268317 0.2317962875513119 0.13150903544480236 0.014240772075518486 -0.09229549730153516 0.2647022403592519 0.2283200263607639 -0.054057336279437054 0.20879454002386494 0.3083561438977503 0.07295489090799266 -0.1055368272378367 0.14006764195776106 0.25465810888296747 -0.08776626414069404 0.030108817325254486 -0.6174297037370462 -0.41616154779916736 0.19263846991675584 -0.1436650127711796 0.10870777609328797 0.5636964950906859 0.07007350762352813 0.06685361625033391 0.11952776591294878 0.24447411549787146 0.20779617869729247 -0.1610732322102676 0.1302686708082063 -0.04095127803318188 -0.028077696959170843 -0.2854960074226506 -0.05165936764925813 0.07281344416622432 -0.10860066646290342 -0.12222764781353991 0.0336201952779386 -0.06514642936044635 -0.07481005237835572 -0.31797617858329624 0.14295020770563768
ciudad 0.12499593649431874 0.052854289365483906 -0.47893823794000445 -0.4043992599902412 -0.09478892092825446 0.08541763283263994 0.40779548568988194 -0.12511829201091668 0.053667922886933526 0.0663116081994835 0.26881031470306554 0.159964839498168 0.15630070176103633 0.16964026767653861 -0.3927919884476299 0.2754680044980411 0.030320636654052227 0.245619388842577 -0.18492141864477696 -0.3205830370421516 -0.10117140680144035 -0.07587460968436927 0.17464652850814089 -0.14949585950167976 0.5353187904772853 0.5828963245478643 0.3858311599832547 0.21710842610267542 0.05444283155576339 0.15589585351999485 -0.50374668082796 -0.19815428009731748 -0.22475391900662373 -0.29010664156121724 0.009375916661444406 0.18325196800510285 0.3335753117227744 0.23168895208938467 0.17737652037160967 -0.09808324503531667 -0.3165736913676261 -0.7372262358204628 -0.30089809211832064 0.02567412864760546 -0.09908583172035626 -0.24803150465421267 0.21083422168535287 -0.5753939816369064 0.17173295244524567 -0.34366147044700346 -0.18867150865059523 -0.08878964093252681 -0.4537833915944713 0.3460684777159571 -0.11275099397333994 0.28658754371759193 0.091542666354844 0.21718634344563695 -0.6558518008575708 -0.06191932649115408 -0.30106817082121656 -0.311895077042616 -0.17260008486670764 -0.09233809650272973 0.3877939231987744 0.16307531916804097 -0.22796659490062693 -0.1022062591572692 0.10234745010926266 -0.17796620432225804 -0.14057228354927515 0.2859277076353774 0.04150508852791811 -0.12364721701028893 0.08080978411474538 -0.17793692846197115 0.5428568264520054 0.3092393945020135 0.04883580238792314 -0.06581424611571339 -0.11155177274983814 -0.29876001512168426 -0.035430151731780914 -0.1996827837279636 0.2470860798064033 0.22981205327921825 -0.13889896055027667 0.23117408658010768 0.04830854411984674 0.03283320658889641 0.39325549213209693 -0.2670046408753463 -0.11424505351716682 0.10946038351680532 -0.130518448966244 -0.2283669674813587 -0.18007392871259895 0.13702477878192768 0.23572825149759113 -0.1806558857594206 -0.025617119490611538 -0.03099727402962598 0.6299879776814472 -0.8567375858112779 -0.001087783443782418 -0.0786204475422418 -0.36823606479559623 -0.09398005615561152 0.36636145282235305 0.23426073504404482 0.09332690192156413 -0.18072431228414607 0.10846508645550121 -0.04211882692527835 -0.25921314204227003 -0.23425041032675692 -0.4487580898240785 -0.13167071864484367 -0.3482621478339523 0.1737534737374886 -0.06164696963607427 -0.042093516594281365 0.42026512216595785 -0.4704246707717918 0.1336666918796566 -0.14195050223390004 -0.06253811810770009 -0.006250132981949657
tigre -0.41701568738497075 0.18996342557075266 -0.5583864718841253 -0.07327739801106899 -0.4349042329983933 -0.2706175489820073 -0.0732526404749918 0.16948978113207042 -0.18743028429260947 -0.026398284931020394 0.5578631042637165 0.45320483828971253 0.2644402827659816 0.09114391863685183 -0.42005534946610834 0.2160986411454813 0.09324904529347781 -0.08677274080640741 -0.3754105176933611 -0.10810843551564397 0.44898907750586675 0.16646606897184194 -0.06146509426768698 0.123206610314775 0.7083078591636498 -0.04782553700292884 0.5035907879559306 0.6001970014683186 -0.04630156330343645 1.0329785930398427 -0.53127336361749 -0.19188375310104508 -0.25898916212094086 0.17618296139550307 -0.456644227694013 -0.08672498874108332 0.07896368109332487 0.08682987151179339 0.6086135696594481 -0.04396587833305601 0.11504272938081912 -0.13499859327770125 0.05492084663587174 -0.25360442992555604 -0.43716558214905527 -0.3155096515968622 0.24628908745713782 0.16845044334248074 -0.14032197040257713 -0.6544449506171356 0.189248140888895 0.2588117595112462 -0.22806988549629398 0.11631305679968802 0.5866526102552214 -0.02932256350141409 -0.5365112322298071 -0.44209147740898264 -0.05670477792316604 -0.017023257221972777 0.025431178471211024 -0.5701787493038136 -0.3353986119314853 -0.3551087809864361 -0.06506850044647755 -0.15115548982350896 -0.5500599141688639 -0.2560464370677846 -0.0980186552970447 0.22647503400393673 1.1619497136589194 0.3372798225349658 0.11007247343877537 0.01305451236365707 0.5675497343803313 0.0008328188910776285 0.5425875906543496 0.07197775966818465 -0.10977029963691415 0.036560699058920926 0.38576908834995527 -0.6857847245506984 -0.0353520247596621 0.07982996631859979 0.03169017524272479 0.5090560725603482 0.22213933769977276 -0.3604730477071159 -0.1699885177697613 0.6462651932384831 0.2234654011646187 -0.32722736328854196 0.1138662072809851 -0.06606902576060607 -0.4971489780351471 0.004993949407326536 -0.2719631962924705 0.1983114908288009 0.02129188747966224 0.414971529139197 0.48464343440932905 -0.5927348211710628 0.1797920489412973 -0.6870345860878174 -0.2651209916259264 -0.2359218834849846 -0.25322307197631444 -0.12212634091715296 0.3464751614117097 0.06759805690814108 -0.18082271910838954 -0.5534728824878126 0.3605742578048111 0.12562653188283643 -0.4281866277674429 -0.21216490078123565 -0.19237673142635442 0.6553691004121452 -0.24743797505455514 0.3438445010682851 -0.23713233633945513 0.264196476477838 0.153423440032379 -0.2698323981629751 -0.16609081908741405 -0.3209621174863585 -0.3734570155926224 0.45344049080398735
dar -0.04404992786998095 -0.12076841384503974 -0.18603889487134412 -0.38170199786657955 -0.186597963792804 -0.19485895873507017 -0.49648377473920646 -0.01799169768753052 0.07651630563056401 0.024564412414476218 0.13102878874454965 -0.245891562672456 0.13810033912132935 -0.18931535674150976 0.017681535581443548 0.04523954988214356 0.09937087401742453 0.28367969594361275 0.007092241318318248 -0.05092578425972096 0.10348401671897267 0.12913480011981884 0.058455225278096004 -0.10772401248000973 0.035189619577232434 0.06355645717341686 0.25829042961670634 0.1621643886826842 -0.3542442891726441 0.25654588480065565 0.014640701521939468 0.17709937569028222 -0.05538868811120311 0.12768300942834412 0.07406778116217239 0.3014753211668641 0.08029335308758048 0.015521128854420314 0.2552548284328757 0.45171439621802856 0.1113889605318888 -0.057823080899421 -0.20419213477874334 0.11731303515993548 -0.03856762982685669 0.03441193597548116 0.29381394973123315 -0.3779786997930547 0.03610251068497768 0.20690401755818982 -0.09935771225527096 0.07039313501231535 -0.006195000558133544 -0.002559840164214887 0.12214231431459292 0.15199815578665363 0.01984434899175273 0.15116211423960987 -0.1963900215561229 0.14674864635227178 -0.2781130401819032 -0.3019082604955622 -0.3865385561970715 -0.09989552815567135 -0.2021722560225162 0.20765624832196183 0.06974554967465513 -0.00015805077106603206 -0.026201680491137483 0.016366351480105134 0.129354020214458 -0.04535163360350043 0.2967819428397463 -0.12696413138075718 0.22231167284082481 0.01125572454837495 0.020119737348870584 0.43733651039129434 0.16920050659584937 0.35121929505333144 0.3478209540407286 -0.27514320356313493 -0.10101761126318416 0.09499024987987074 0.29048823246623434 0.280351235289483 0.0452126764795074 -0.30735742559100065 0.19042553204483295 -0.04102632506964973 0.21262763568200121 -0.2946843660566931 0.18955289687146487 0.10545508355052872 -0.27114818771581384 0.014159496545016059 0.024042537882409946 0.03289917944154032 0.03448945522007978 -0.3409810156564727 0.4399010469599191 -0.13106813989863222 0.13298226509435218 -0.37467109419232153 -0.05353850035375057 -0.0553328119645099 -0.2971283544319462 -0.10083553551148171 0.3930076700959052 0.09020205150214 0.350609619708857 -0.034161804772726866 -0.1799048115360728 0.2747616988720618 -0.29755547862648507 -0.14792934376876965 -0.4068766965411446 -0.10951203417644527 0.21465763775854263 -0.11523708925058217 0.07093702349256438 -0.2929407487845047 -0.05317327322458503 0.14177783368735414 -0.10960159989167548 0.08548641036407527 -0.053376637986847435 0.1254174278592144
aire -0.10785990129570842 -0.42895933196321595 -0.2445113874444283 -0.01898015344235495 0.129216379790847 -0.23263679548348504 0.06882035812305606 -0.2005162265488734 -0.21105054519479297 -0.07906218645189897 0.5150350125264738 -0.1851702071849468 0.13837717242902972 -0.17528031403727903 -0.014810074799092401 -0.17454388951207792 -0.08053649552026519 0.382691668684899 -0.568824962180096 -0.004191415120762414 0.07943174337984968 -0.2857259974881443 0.6161519354465369 -0.1756144987807302 0.30727573274055453 0.3945098317348868 0.2273543523306918 -0.05025342228088285 -0.603212580341225 0.7826763381592502 -0.5888832736668952 -0.037465111982380075 -0.09162653188756864 -0.012103813748267224 -0.25330409763392703 0.49993398457386656 -0.2501871831817374 -0.007313111654686587 0.6276408553150338 0.017060897584810858 0.15061590150371165 0.3275358244933134 -0.213323735587209 -0.11514716975954055 0.05363572528052069 0.5327537398521575 0.081895974177285 -0.3497007676481496 -0.1522432161785216 -0.4782672768628765 -0.09984819536913424 0.5610845355423679 0.4049331429062823 0.11459889870823835 -0.25202461193409903 0.0994720843676438 -0.15184497806226768 0.17251013402782508 -0.2723698725203323 -0.24384239141434746 -0.25799332724288426 -0.6490189289228394 -0.3438538353878162 0.5785491469113427 -0.35330452750876945 -0.2740560023551119 -0.052291491204483766 -0.1911924311446024 -0.04199167600865728 -0.010279660201480016 0.4856500809886045 0.7181843330490812 0.01409815440305928 0.3411190916965673 0.5312234598016153 0.020643982597234056 0.18082899647127687 0.2512556698634189 -0.005153882522430829 0.21764472288681927 0.08159466033106301 -0.11111368095404305 0.4544996204226297 0.37540040664195706 0.20155133036464393 0.34749046267589917 0.024954889349345866 -0.2533183305988474 0.051953686717100364 0.04060610118637653 0.25540785039926966 -0.23858257891892384 0.40050649634090846 -0.15397995267816675 -0.46085308229088673 0.10728184352425495 -0.19002772330918014 0.5523787160753558 -0.19229045272591058 -0.30007970971712117 0.17004213047436406 -0.13905875725678513 -0.07058039436053602 -0.35777040680716726 0.04648161323587185 0.1442373096826581 -0.7886180613862047 0.3714930954177465 0.6819284120635447 0.3461576484588966 -0.0972333872519629 0.12221619639275785 0.5928508457699738 0.0965801083549661 -0.029448269484767475 -0.20911460611670352 -0.5634425774371333 0.24720068048577884 -0.1808929978886839 -0.045608068157852275 -0.4802610582931782 -0.32413818368608516 0.1618797443609326 -0.5577303264707546 0.0420123693415381 0.05821827562430184 -0.12039398540229156 0.12958456932944862
volver -0.08184789627203219 0.08135982725147722 -0.03882648674847129 -0.2406626809949112 -0.1448671040855414 0.0008293356013254838 -0.25407671220134515 -0.2718386997043365 -0.028293027657370903 -0.4053954668889689 0.4287109617912166 0.15066792307938506 0.012631268882276253 0.025990622710484804 0.16070307906301523 0.030797111404264332 -0.24211385554089143 0.48644594992094986 0.1178331346609295 0.2751889069279753 0.08394465333256435 0.2977172554681337 -0.21625809072090718 0.20325999633110478 0.14783743846200476 0.24325951802400922 -0.17508481507510718 -0.024246288168811792 0.14325231566252725 0.23090659212726777 -0.3157772743162206 0.11527487226690915 -0.19566195491167418 0.18102889539635095 0.008020605281893948 0.154102646726482 0.42631857791035116 -0.10808435988551432 0.1027093752586876 0.48454945282314243 0.02686133703372759 0.023274645552763193 0.16284331653783313 0.0274785731554903 0.1178447168085548 0.07188151662752063 0.06286260244816573 -0.5388938086371218 -0.07450782770564163 -0.03341819494241532 -0.09277452961220707 0.0649071763377679 0.19706401222018344 -0.05527013897808982 -0.007392297307879117 -0.05399905948706875 0.03403044674869312 -0.1336879684956559 -0.24068819644923886 -0.4755474646986197 -0.38011089426843125 -0.283090858757667 -0.4144977100329071 -0.27211949427050347 0.07690494554323359 -0.11251066100551681 -0.07070601936185904 0.05475014480833528 0.27765109256217374 0.4237959095795941 -0.03190817010885079 0.022969579567458757 0.05451713620773743 0.3826190826643748 0.23121235289672565 0.4059531746075355 0.11772217695688535 0.06475428445896639 0.21889194418687824 0.09171536712451166 0.0225991193308149 0.03240227745720686 0.21313418298167766 -0.3199693889757627 0.16990014102073991 0.23477243857660132 0.060097391289970256 0.27688398282609405 0.37799858713124446 0.14618797185226612 -0.05729206903785336 -0.2974792702825652 0.17696978940503963 0.00783010754457426 -0.1590897709704921 0.18198726175389066 0.30171863246429287 0.2823287722426507 0.18219145803287115 -0.3786547254377894 0.536148725256834 -0.14956133149163373 -0.10247789213483584 -0.013523552977493237 -0.1155909845080004 -0.14288588870679195 -0.39098193382058327 -0.18568959426097612 0.08564066208176994 -0.2241368535899552 -0.05264712551103343 -0.4487878972926011 0.38538069920889007 0.28214128964052504 0.17662889591364633 -0.10093577554303287 -0.40491410980215076 0.035768716152088084 -0.16384819338091558 -0.26071144268083773 0.20059553497469895 -0.3378419455008918 0.41757467867639997 0.04428788820479836 -0.11920239540697894 -0.09156680329298476 -0.1674545876099806 0.05941265760389255
llanura -0.1820201028084423 -0.31152135536458353 -0.31863509553410074 0.24352040188235277 -0.39372507981186494 0.03625202389198784 -0.46660825872068074 0.14850580541152714 -0.3418296154168174 0.4574260298603272 -0.31068295001621715 -0.2988105124524128 -0.21628226168485168 0.37571873776220965 -0.15686588727883083 0.1792838222206566 0.006028469348154359 0.5562992380298507 -0.21693708336196146 -0.009629090205564763 0.09629553799392276 0.28301883561388147 -0.6208225807264552 0.016501177224989765 0.4448957951938067 0.5781066239273588 -0.27653673277393437 -0.10359795127020553 0.02900729430223206 0.504873856688657 0.21163754615308772 0.1158466454242819 0.14451943370291173 -0.3682576693768509 -0.1828270541152822 0.3680308377077517 0.43664600303944795 0.17538957615760897 0.8885166854995552 0.15500878729365075 0.3978731667501006 -0.7830240311827553 0.46727716313887846 0.31004730686630566 -0.11756646078063228 0.017794638393873064 0.20752138077008273 0.41926097655487327 -0.17555833779742305 -0.1580438734959224 -0.6199592328578268 -0.19012842540710814 -0.3533055521324345 0.6893248887393749 0.16922306013883553 0.088158676269721 0.3387243717952572 0.13553856105641418 -0.6928468924521234 0.13267564616023808 -0.5024246331752209 -0.3984555368677263 -0.03157092235315135 0.3463040992592679 -0.014697184938796501 0.1204996596552738 -0.3458332119963426 0.11150280820192734 -0.22044695018355545 -0.21938888800927897 -0.22252827666901195 0.22619419776787794 0.27635525065069283 -0.07372634637010017 0.28257452368162805 0.33756435367676574 -0.06154269129045946 -0.06591109285263497 -0.25156270947393494 -0.04184105471829533 0.18328594192733816 0.19881310678162503 0.3599700888163249 -0.1112674899594876 -0.10918019507239818 0.62771847944946 -0.07610205179288523 0.15380377663812383 0.07263355424421182 0.3671069552991129 0.598600428334688 -0.18964436402213306 0.40015985427444867 0.017981698414317803 -0.14976016377115423 -0.44958900175275995 0.5629317247392871 -0.5084601202914978 0.10933191641014073 -0.1944650120968111 0.4696848952567374 -0.25164465861820645 0.17593588506459323 -0.6962256503714086 -0.09259368841791137 -0.3838466190160152 -0.4582347938578911 -0.201436399659291 0.3325049169135382 -0.1062266155230955 -0.1720523848746513 0.14025432869912283 -0.3717877911582387 -0.07382265290793129 -0.13352798781662403 -0.3208847713107705 -0.4405201844045688 -0.05670429151937588 -0.5387668672282314 -0.0649279890547661 0.017550595535451807 -0.08901155372330688 0.27937496958440833 0.04250523563107691 0.1932750610849616 0.13556342380190012 0.14519524879925405 0.2350775053540243