tatemp 0.083819 -0.102447 -0.0289316 0.0903637 -0.0910742 0.00824602 -0.0429012 -0.0159452 -0.00750261 -0.0422918 -0.111662 -0.00424965 0.0124689 -0.0109748 -0.0276875 -0.123288 0.0499514 0.0292327 -0.0204616 0.0081395 0.101262 0.010312 -0.0654842 -0.111717 -0.0940923 0.0582306 -0.200147 0.145177 -0.0522182 0.0368711 0.0386432 -0.120903 0.0430037 0.0297075 -0.086366 -0.0820777 0.0577583 -0.105497 0.0744689 -0.00277482 0.0221643 0.0243346 -0.0722357 0.119842 -0.0355877 0.023602 0.0334118 0.0253453 0.000964117 -0.0184615 0.0100017 -0.0827811 -0.00144819 -0.0173402 -0.0947086 -0.00468584 0.126494 0.0919813 0.140258 0.0480531 -0.0399205 0.0301459 0.073522 0.046067 -0.0740795 -0.000641279 0.0511007 0.0289044 -0.0887233 -0.0947774 -0.0544226 -0.0333983 -0.0955472 -0.179017 0.0268263 -0.0389751 0.00291494 0.0361261 -0.102025 -0.0327867 0.0650833 -0.127575 -0.0978755 -0.0843668 -0.153275 0.0432164 0.0388764 0.0118689 -0.0872021 -0.040479 0.109026 0.0495581 0.098273 0.0441683 0.0208241 -0.0220262 0.0811476 0.0522411 0.0272793 -0.0313811 0.055226 -0.188833 -0.123707 -0.0104046 0.0715981 -0.02457 -0.0377539 -0.0345031 -0.0271478 0.0809289 -0.0148203 0.117032 0.0931418 -0.0233924 -0.074846 -0.142873 0.0976277 -0.0145197 -0.122109 -0.0083466 -0.122047 -0.0246666 0.0282528 0.0965045 -0.0169899 0.0940852 -0.013168 -0.0974885
petlacal 0.0326081 0.0543169 -0.0266917 0.137505 -0.0227927 -0.024745 -0.0773586 0.0931121 0.0660889 0.116868 0.119588 -0.000266769 0.0429201 0.0129295 -0.00928109 0.0430392 -0.24336 0.0480676 -0.0881174 0.0173665 0.0101303 -0.0167141 0.0159521 0.0304051 -0.157747 -0.00907849 -0.018026 -0.113965 0.0694167 0.133036 -0.0533189 0.000882639 -0.0454694 0.112892 -0.0323759 -0.0926316 -0.0603014 -0.101942 -0.00318846 -0.0069936 0.0959911 0.0933619 -0.036241 0.107242 -0.173937 0.0287325 0.051903 -0.061315 -0.215022 -0.00190207 0.00921215 0.0638926 -0.029988 -0.0077912 -0.0717415 -0.00566025 -0.0883898 0.105607 -0.0938452 0.00757382 -0.0104625 -0.000707898 -0.00603123 0.00426633 0.0460122 0.154717 -0.0344971 -0.040307 -0.0665884 0.012481 0.000262113 -0.11228 -0.0687561 -0.18014 0.0187055 0.0745636 -0.164799 -0.106378 0.0452895 -0.0820288 -0.184699 0.0837877 0.0120459 0.0355661 -0.00276445 0.0599058 0.0264717 -0.00574544 0.0104744 -0.0428994 -0.12666 -0.0147644 -0.0725922 -0.188576 0.11288 -0.067071 -0.0425651 0.0402306 0.101633 0.0968928 -0.0174747 0.0196903 -0.0566136 -0.0302118 -0.117627 0.054356 -0.034936 0.079917 0.0434003 0.1066 -0.0818496 0.0928706 -0.0753157 -0.0328735 -0.0955997 -0.0176426 0.00585963 -0.0687611 0.0713749 -0.000844129 -0.0613629 0.0653084 0.00620768 -0.142703 0.0683876 -0.033759 0.103959 0.0179128
coyoc 0.00951223 0.226157 -0.128861 0.10871 -0.0243221 -0.0125536 0.155841 0.0507817 -0.131043 -0.0863507 0.098313 0.0139402 -0.0558361 0.0468302 0.0880319 -0.103877 -0.0642052 0.00562699 0.0335845 0.0834111 -0.0242822 -0.0184751 0.070098 0.123976 0.0419664 0.0847513 0.0691829 0.0743512 0.103656 -0.0873301 0.119236 0.0480481 -0.0206217 -0.00563639 -0.0642547 0.0258077 0.0109686 -0.165657 0.136892 -0.00852538 0.100592 0.0638914 -0.0617934 0.0342366 0.0120162 -0.0355229 0.0217992 0.139871 0.152871 -0.0258547 0.0673272 -0.128949 -0.0433808 -0.104295 0.0123713 -0.126237 -0.0138781 0.0933631 0.13711 -0.0261274 -0.023722 0.134484 0.110528 -0.0607249 -0.154243 0.104774 -0.0565482 0.0346557 0.114115 -0.0446329 -0.0136752 0.0136783 -0.0769414 -0.0265828 0.0889131 -0.0454581 -0.0270182 -0.0958793 -0.0135062 -0.0163364 -0.0864873 -0.0356888 -0.0187218 0.0966104 -0.0339313 0.0255886 -0.0386565 -0.0657578 0.0213012 0.115249 0.0165846 -0.210896 -0.0143372 0.107319 0.0309403 -0.118596 0.0298165 0.051701 0.0423952 -0.140087 -0.0301027 0.0679037 0.013028 0.0002002 -0.00400905 -0.0125728 -0.0865165 0.0700696 0.0273026 0.0395493 -0.00631297 0.030112 0.159382 -0.00422508 -0.0299858 0.0232272 -0.0385784 0.0827376 0.00469615 0.117099 0.0153667 -0.0371106 -0.0102146 0.0864165 -0.0589061 -0.00165698 0.0953247 0.0304578
quetza 0.0552331 -0.00758015 -0.049905 -0.0564851 0.0138247 -0.0481728 -0.0659626 0.079753 0.052843 -0.0416802 0.0500964 -0.0700131 0.0371122 0.154855 -0.0408867 -0.10072 -0.0689237 0.0280274 0.0148039 0.121215 0.0343205 -0.0423601 -0.0207609 0.0255431 -0.117085 -0.0191992 0.176988 -0.0552042 0.0369762 0.0182598 0.039037 0.000184765 0.0412715 -0.0157242 0.00331862 -0.0463022 0.0646284 0.0149653 -0.0443419 0.0483692 0.0221924 -0.0884993 -0.119421 -0.213659 -0.0234201 -0.102929 -0.0765104 -0.0509035 0.0621473 0.108222 0.105714 0.0439673 -0.0538822 -0.0368277 -0.0152761 0.107853 -0.019577 0.0761736 -0.199388 0.00919057 -0.034367 -0.0599734 0.0471138 0.0587831 0.017126 -0.0792275 0.00408004 -0.119009 0.0565117 0.0723549 0.00354449 0.0403454 0.00763845 -0.101454 0.0346719 -0.00530622 -0.178171 0.126057 0.0320731 0.0358591 -0.0921874 0.0049653 -0.0943034 0.0547107 -0.0164621 0.112945 0.0183095 -0.0479938 -0.000456002 -0.0243601 -0.0450024 -0.00164732 -0.0986711 0.113222 0.0422438 0.0439408 0.164724 0.097787 -0.0644834 0.0492481 0.0601362 0.00292685 -0.0140537 0.0332486 -0.0606437 0.0705687 0.0637988 0.0100333 0.0351021 0.0195952 -0.0117487 0.0627073 0.030574 -0.11624 -0.000655212 0.0878982 -0.077776 0.0637419 -0.0427209 -0.0190466 0.0421294 -0.000662754 -0.252889 0.0292656 -0.0337839 -0.133596 -0.0894948 0.0744607
altepe 0.0646439 -0.0235198 -0.054033 -0.120594 0.0320172 0.0544093 0.145276 0.00660734 -0.00233303 0.0387991 -0.003316 0.0519963 0.0498364 0.0506001 -0.113013 0.112904 -0.0218794 0.0406793 0.0238725 -0.104393 -0.0742851 -0.0111329 -0.00571746 -0.0571098 0.118131 0.112792 0.090876 -0.0138873 0.00286586 -0.00584662 -0.0423561 -0.064829 -0.0639669 -0.0946803 0.0434442 -0.0537994 0.102475 0.0972366 -0.0305471 -0.0510139 -0.100034 -0.20234 -0.0265608 -4.12804e-05 0.0597894 -0.158365 0.0129443 -0.130713 0.051796 -0.142404 -0.0563479 -0.0789287 -0.124056 0.0264023 -0.0710125 0.0871402 0.0756269 0.085931 -0.189158 0.05679 -0.033479 -0.0102168 -0.0314968 0.0229985 0.0695639 0.0890287 -0.068836 -0.034946 0.0215368 -0.12121 -0.0540621 0.0465933 0.00642666 -0.055825 -0.0459998 -0.0712207 0.0530578 -0.00491165 0.0103585 -0.038712 -0.0808054 -0.0967967 -0.0146072 -0.0695403 0.0339076 -0.0712629 -0.0645871 0.106667 0.0343336 -0.0124194 0.196983 -0.0247143 -0.0432978 0.0334766 0.0466734 -0.032409 -0.0690913 -0.00266995 0.0653341 -0.0823158 -0.0673227 0.00443335 0.175238 -0.112322 0.0295211 -0.0633823 -0.0619719 -0.0556017 0.0468311 0.00976227 0.034601 -0.0721038 0.0532649 0.0385966 0.00833352 0.0547136 -0.143368 -0.068987 -0.0535894 0.0215838 -0.0159227 0.0562333 0.106568 -0.149995 0.0584434 7.13385e-05 0.0192919 0.00839321
tecuan -0.146536 0.0912038 -0.00764612 -0.0222571 -0.105621 -0.0482828 -0.103109 -0.000187223 -0.11869 0.0552615 -0.00757165 0.0862884 0.0767793 -0.0606831 -0.0713452 0.0887678 -0.066182 -0.0897433 0.0169422 -0.00567855 0.0412857 0.0443788 -0.00657371 0.029473 0.0758245 -0.0222956 0.027205 -0.00176596 -0.0319979 -0.0357027 -0.0628371 0.00416965 0.0912005 0.0221461 -0.0937912 -0.287621 -0.0335834 0.0377352 -0.0182055 -0.0829182 0.0376608 0.0154734 -0.0629656 -0.0506779 0.166305 -0.068658 -0.0025718 0.0682955 -0.00217551 -0.187093 0.0943088 -0.0449992 -0.0836558 -0.0225498 0.0525537 -0.00717271 -0.137521 -0.171574 0.0555345 0.037416 0.0865678 -0.0862853 -0.0469948 -0.0456483 -0.157746 0.0337851 -0.0662855 -0.0901978 -0.064788 0.0864002 0.120407 0.0247255 -0.0591814 -0.0437399 0.153873 0.00785248 -0.0119246 0.0270653 0.0786994 -0.108328 0.0436862 -0.12312 -0.0414707 -0.016998 -0.0665121 -0.0914412 -0.000330095 -0.0399951 0.0831284 0.0851354 0.057573 -0.102801 0.0496227 -0.0206173 -0.105215 0.0532795 -0.123347 0.00636475 -0.0248981 0.0484939 0.109882 -0.0333378 0.0329638 0.0439846 -0.0511739 -0.018387 0.0456136 0.0285341 -0.0779673 0.103422 -0.021761 -0.00266138 0.0217257 0.0922922 0.0234816 0.102909 0.00488706 0.157922 0.0738665 -0.0210038 -0.0930856 0.0767665 0.183542 -0.0788356 0.0301981 -0.0384556 -0.0756592 -0.00538501
maca 0.0148243 -0.10359 0.0239741 -0.070269 -0.0864954 -0.0525634 -0.130525 0.00371165 -0.0273125 0.0534081 -0.0324221 -0.0287697 0.0702226 -0.124137 -0.0924188 0.0507594 -0.133132 0.132606 0.0989969 0.0805821 -0.0249948 0.0423535 -0.0380629 -0.0725013 -0.0169409 -0.0494548 0.127201 0.0651628 -0.079038 -0.0673439 0.123426 0.106779 0.0205423 0.0270448 0.0779647 0.100745 0.0340197 -0.0515736 0.013333 0.0789868 0.0311282 -0.0255929 -0.0236549 0.124822 0.0445185 -0.0242096 0.0825271 -0.0831955 0.0336922 0.0257679 -0.0213519 -0.105463 -0.0810021 -0.118573 -0.0525415 0.0222455 0.0242346 0.0109158 0.031432 0.0230795 -0.00399169 -0.0450707 -0.0493422 0.0359945 -0.0655174 0.0648453 0.028993 0.0822518 -0.0462362 -0.0311436 -0.0739781 -0.0978234 0.0645699 -0.100786 0.0497968 -0.0303785 -0.185155 0.00932577 -0.069133 0.107732 0.146291 -0.0681351 -0.0862307 0.0474468 0.0593098 0.0205039 -0.0246294 -0.109948 -0.0531288 -0.0989349 0.083132 -0.0820837 0.00312869 0.0421888 -0.0396707 0.0277036 0.0006406 0.0462083 -0.0138025 -0.0969301 0.158495 -0.0399114 -0.0169917 -0.0582249 0.0713632 -0.0231197 -0.0459257 -0.0239859 0.0995222 0.0302643 0.0995737 0.00261672 -0.0310367 0.142326 -0.0766305 0.0300005 -0.0948637 0.0779033 0.201198 -0.0500308 0.065635 -0.0722943 0.0254394 0.0944347 -0.0121 0.0789819 -0.0394921 -0.0323957
eheca -0.026327 -0.0309464 0.0335536 -0.0189978 0.0278251 -0.121009 0.00431256 -0.0434841 0.0410299 -0.023526 -0.0112294 0.00899339 0.141876 -0.0452235 0.0962571 0.0135608 0.0249386 0.0633599 -0.0097001 0.126659 0.0427267 -0.140988 0.101507 -0.0357523 0.049002 -0.0732403 0.123726 0.0208037 -0.0845015 0.141638 -0.0408975 -0.107175 0.142917 -0.000447294 -0.0147645 -0.0251911 0.0134727 0.0603912 0.039873 -0.0400594 0.0516534 0.14551 -0.0469772 -0.0774079 0.0359476 0.185036 -0.0503698 0.0866464 -0.0154726 -0.0217409 -0.0355445 -0.0183187 -0.0015986 0.102024 0.0104121 -0.0302914 -0.0982882 0.118328 -0.0336112 0.0423379 0.0808492 -0.0802821 -0.0456862 0.054585 -0.141918 -0.144053 -0.00489615 -0.073257 -0.0533217 -0.15766 0.232063 0.0311052 -0.0304685 0.0039296 0.0783227 0.0086082 0.00930826 -0.0820854 -0.036374 0.0278092 0.0331222 -0.0121149 0.146839 0.0350099 0.0114926 0.0167977 -0.0198277 0.0370599 0.0606484 -0.031036 0.135284 0.0636286 0.0424184 0.0373769 -0.133265 0.022253 -0.0949138 0.131802 -0.0892966 -0.0888793 0.0586063 -0.0798638 0.0674019 0.0246213 0.0619472 -0.0747769 -0.0380234 0.0126779 0.0347336 0.00860951 -0.138671 -0.0296323 -0.0426783 0.0661872 -0.0288234 0.0156424 -0.111135 0.060148 0.0573833 -0.00243369 -0.0586712 0.0135599 0.140559 -0.104859 0.0320046 0.00508033 0.104702 0.0422923
mocuep 0.0355861 0.0148118 0.0184357 -0.0174169 -0.0185183 0.0279551 -0.0932236 -0.0250271 -0.092899 -0.145674 0.128153 0.111825 0.0441746 0.03459 0.0320227 0.0484508 -0.138732 0.0161695 0.0538576 0.0212516 0.0558199 0.0343126 0.066205 0.0340439 -2.57713e-05 -0.0453951 -0.00927824 -0.0524182 0.0830144 -0.0875258 -0.0233975 -0.0360237 0.0363123 0.202472 0.0654433 -0.0499933 0.0526525 -0.0166264 0.0539047 0.0101091 0.0154401 -0.0591535 0.0653957 0.00725495 0.0228943 -0.0633508 -0.00925355 -0.170601 -0.00233065 0.0370816 0.0453337 -0.0124851 0.0327969 -0.0192203 -0.00342022 -0.0134831 -0.0320359 -0.0423799 -0.104896 -0.145047 -0.136444 0.00369251 0.00777099 -0.0614217 0.0508399 -0.0511421 -0.00818219 -0.0325056 -0.0154865 0.0648708 -0.0260366 -0.0921834 -0.0612651 0.106522 0.07893 0.121693 -0.00675914 0.0526568 0.0832465 -0.102369 0.011673 -0.0369154 0.0118946 -0.0249054 -0.0069001 -0.0108954 0.0364087 0.0251582 0.0218105 0.142066 -0.116979 0.00762905 -0.0126927 -0.0682999 -0.0629505 0.0888527 0.0624041 0.0550731 -0.00281287 -0.0992955 0.146284 0.0495094 -0.0997615 0.0287487 -0.0578507 0.0260101 -0.0361091 0.0467401 -0.0371969 -0.195466 -0.0491563 -0.0855805 0.130037 -0.0256295 0.193251 0.090861 -0.135071 0.0611256 0.0203617 -0.151232 0.00702039 -0.139885 0.184108 -0.0269076 0.0661723 -0.00134333 0.0781741 -0.0148296
xtlahua -0.00312426 -0.0239081 -0.000316323 0.0441515 -0.00391387 0.0476965 -0.154751 0.0970001 -0.171669 0.119802 -0.138467 -0.0505135 0.00842113 0.152062 -0.0566675 0.0654293 -0.0273429 0.0891951 -0.00114554 0.0351923 -0.0734919 0.0706018 -0.213495 0.0260404 -0.00844676 0.0784516 -0.0841437 -0.0215256 0.0787134 0.0117729 0.0653256 0.0630607 -0.003812 -0.120123 0.094139 -0.0132771 -0.0599155 0.0347105 -0.0325593 0.00444822 0.143605 -0.144317 0.125188 -0.0115118 -0.0372533 0.0335076 0.0845979 0.109206 0.0100981 -0.081248 -0.079449 -0.000794258 -0.0962418 0.119157 -0.010063 0.0616461 0.128357 0.0184301 -0.113693 0.0864317 -0.0549649 0.0122442 0.0694661 0.0535411 -0.0232183 0.0334028 -0.17716 0.00180112 -0.0435089 -0.0736149 -0.159274 0.00459369 0.0549767 0.0773855 0.0775338 -0.00425372 0.00466828 -0.102847 -0.00758039 0.0563641 -0.0380787 0.00209627 0.00733615 0.00158229 0.065227 -0.0206596 0.0393289 0.0577729 -0.0387648 0.0453086 0.0401856 0.0730876 0.0468266 0.0517768 -0.0102626 -0.0541966 0.124095 -0.156639 0.0199385 0.0014909 -0.00466978 -0.0161625 0.116883 -0.0137949 0.0268844 -0.123996 -0.0870134 -0.00308602 -0.0345689 -0.0471025 -0.069395 0.184711 -0.0541402 -0.0515039 0.00746738 -0.0299849 -0.152809 -0.0409233 -0.111313 -0.0214431 0.0431129 0.0758162 0.0648503 0.00499633 0.106869 0.0506599 0.00871999 0.0612235